{"version": "0.5.4", "metadata": {"date": {"year": 2025, "month": 4, "day": 27, "hour": 9, "minute": 24, "second": 25}, "loudness": -23.012821197509766, "gain": 0.019026359125257252}, "architecture": "WaveNet", "config": {"layers": [{"input_size": 1, "condition_size": 1, "head_size": 2, "channels": 2, "kernel_size": 3, "dilations": [1, 2, 4, 8, 16, 32, 64], "activation": "Tanh", "gated": false, "head_bias": false}, {"input_size": 2, "condition_size": 1, "head_size": 1, "channels": 2, "kernel_size": 3, "dilations": [128, 256, 512, 1, 2, 4, 8, 16, 32, 64, 128, 256, 512], "activation": "Tanh", "gated": false, "head_bias": true}], "head": null, "head_scale": 0.02}, "weights": [-0.17348812520503998, 0.4935878813266754, -0.492469847202301, -0.7524941563606262, 0.259978324174881, 0.310547411441803, 0.4374924898147583, -0.006990710739046335, -0.09168851375579834, -0.28276193141937256, 0.043916720896959305, 0.004584809765219688, -0.040828902274370193, -0.3957628905773163, -0.21224583685398102, -0.09971118718385696, 0.06872927397489548, 0.48237526416778564, -0.8431817293167114, 0.1479986160993576, 0.28036871552467346, 0.290730744600296, -0.006018485873937607, 0.5291195511817932, -0.5833691954612732, 0.21346525847911835, 0.4707661271095276, -0.12867754697799683, -0.12939707934856415, -0.03502299636602402, 0.4472403824329376, 0.27778565883636475, -0.4713810682296753, -0.489323228597641, -0.15325477719306946, -0.24444428086280823, -0.1469157189130783, 0.3576754927635193, 0.412722110748291, 0.5881125926971436, 0.19741956889629364, -0.12331436574459076, 0.4047583341598511, -1.1963152885437012, -0.3323715031147003, -0.33063387870788574, 0.5501928329467773, 0.17743457853794098, 0.14670711755752563, 0.7603897452354431, 0.01839062198996544, -0.09537693113088608, -0.12720179557800293, -0.20030875504016876, 0.0908529981970787, -1.3509094715118408, 0.13706082105636597, 0.3307707607746124, 0.12271977216005325, -0.06640195846557617, 0.1328587830066681, 0.28294673562049866, -0.3363969624042511, -0.28213438391685486, 0.4042463004589081, -0.2472243458032608, 0.0996992439031601, 0.13907714188098907, 0.882907509803772, -0.3287973701953888, -0.0783843994140625, 0.8016777634620667, 0.15902087092399597, 0.0875241607427597, 0.05546725168824196, 0.20437447726726532, 0.011596575379371643, -0.7285370826721191, 0.1586149036884308, 0.4751671552658081, -0.24175888299942017, 0.06291591376066208, -0.13211944699287415, -0.20678235590457916, 0.18874096870422363, -0.7784116268157959, -0.06391914933919907, -0.4479875862598419, 0.4394720494747162, -0.47516927123069763, 0.22918647527694702, -0.010387935675680637, 0.7008324861526489, -0.2074650526046753, -0.12795494496822357, 0.22954152524471283, -0.33524835109710693, 0.7573705315589905, 0.10539890080690384, -0.5192474126815796, 0.038166340440511703, 0.22230228781700134, -0.2630877196788788, -0.32600489258766174, -0.3510097563266754, 0.021941693499684334, -0.7650430202484131, -1.2006423473358154, -0.29754504561424255, -0.09559299796819687, -0.06764058768749237, 0.2774454951286316, -0.3066461980342865, 0.5510839223861694, 0.3913995325565338, -0.6795454025268555, -0.2707751989364624, 0.03090622089803219, 0.14155973494052887, -0.5063450336456299, 0.24967563152313232, 0.004709550179541111, -0.333861380815506, 0.20236730575561523, -0.3326531946659088, -0.05989919975399971, -0.004270132631063461, -0.03153970465064049, -0.5691751837730408, -0.5673608779907227, 0.051879677921533585, -1.1723295450210571, -0.32881784439086914, 0.0648692175745964, 0.026345882564783096, -0.30547478795051575, -0.029896875843405724, 0.021474838256835938, -0.08060785382986069, 0.2866171896457672, 0.19171667098999023, 0.19574066996574402, -0.02177065797150135, 0.057603295892477036, 0.3898216187953949, -0.15017196536064148, 0.27980345487594604, -0.008208448998630047, -0.3644779920578003, -0.268089234828949, -0.4044131636619568, -0.5683860778808594, -0.7186679244041443, 0.9666479825973511, 0.3412753641605377, -0.31662294268608093, 1.116307258605957, -1.2675055265426636, 0.5846214890480042, -1.1098285913467407, -0.5827630758285522, 0.07070459425449371, -0.5962368249893188, -0.6707512736320496, 0.0649145320057869, 0.38848981261253357, -0.06224394962191582, -0.2471972107887268, -0.3351671099662781, 0.059109363704919815, 0.09560374170541763, 0.14481520652770996, 0.3167388439178467, -0.6079716682434082, 0.1529894471168518, 0.07668275386095047, 0.01793326810002327, 0.14412933588027954, 0.723943829536438, -0.5153146386146545, 0.24412760138511658, -0.2489207237958908, 0.4785507023334503, 0.15326449275016785, 0.37150242924690247, 0.13531135022640228, -0.07462244480848312, -0.20368307828903198, -0.5093572735786438, 0.025402789935469627, 0.1546924114227295, 0.30229833722114563, -0.10010769963264465, 0.249795600771904, -0.430510014295578, 0.5638152956962585, -0.46318212151527405, 0.015914583578705788, -0.2583319842815399, 0.049241118133068085, 0.11868097633123398, 0.5991066098213196, -0.9229854941368103, -0.06929711997509003, -0.2084016054868698, -0.017046745866537094, -0.18171550333499908, 0.5789244174957275, 0.07497876137495041, -0.0068229371681809425, -0.26244956254959106, -0.13965784013271332, -0.08769253641366959, 0.06540998816490173, 0.016839822754263878, -0.2858021855354309, -0.3620482385158539, -0.32166171073913574, 0.35073649883270264, -0.1420353204011917, -0.03812989592552185, 0.38082897663116455, 0.09575346112251282, -0.29366636276245117, -0.5823935866355896, 0.21260064840316772, -0.39512380957603455, 0.0398697629570961, -0.1738201230764389, -0.1668146848678589, 0.17070415616035461, 0.3381834924221039, -0.09268257021903992, 0.35336506366729736, 0.22924406826496124, -0.29870930314064026, -0.17436952888965607, -0.34876227378845215, 0.1840558797121048, -0.14104342460632324, -0.0772547498345375, 0.17422841489315033, -0.09920380264520645, -0.1277787834405899, 0.32407146692276, -0.0853722095489502, 0.7020849585533142, -0.6470729112625122, 0.13146014511585236, -0.048676203936338425, -0.30222102999687195, 0.005098206456750631, -0.001769062364473939, -0.05662936717271805, -0.363148957490921, -0.2792578637599945, -0.35245269536972046, 0.2487221658229828, -0.48294174671173096, -0.2805007994174957, -0.05455601587891579, 0.014387903735041618, 0.1476818323135376, 0.31776461005210876, 0.26501864194869995, -0.24176140129566193, -0.22935719788074493, -0.22468069195747375, 0.49261340498924255, 0.3863333761692047, -0.21083077788352966, -0.3460157513618469, -0.6141736507415771, 0.22774018347263336, -0.948538064956665, 0.1467737853527069, 0.7332480549812317, -0.3035106956958771, -0.07126079499721527, 0.33131587505340576, 0.31535232067108154, -0.3249897062778473, -0.581021785736084, 0.8338960409164429, 0.388536661863327, 0.3741733431816101, -0.005805960390716791, 0.44023287296295166, 0.01270467322319746, 0.18356849253177643, -1.4935978651046753, 0.4165225028991699, -0.04096606746315956, 0.07095165550708771, -0.07606061547994614, -0.47412964701652527, 1.047448992729187, 0.17706498503684998, -0.3334994614124298, 0.03664260357618332, -0.3423644006252289, 0.0697941780090332, 0.5561591982841492, 0.5210994482040405, -0.32706552743911743, 0.23898519575595856, -0.3792880177497864, 0.2986302077770233, 0.21847940981388092, -0.07265336066484451, 0.018719764426350594, -0.19581303000450134, 0.2836371958255768, -0.522472620010376, 0.8889791965484619, 0.6157976388931274, -0.29810643196105957, 0.0020153233781456947, 0.30306363105773926, 0.5361546277999878, -0.5102522969245911, 0.27945882081985474, -0.31601807475090027, 0.2577187120914459, 0.15970127284526825, 0.5872805118560791, -0.5744687914848328, 0.025063998997211456, 0.3610440194606781, -0.2241915762424469, -0.058934666216373444, -0.16915209591388702, 0.32420825958251953, 0.2134091705083847, -0.7174038290977478, 0.44091492891311646, -0.06251582503318787, 1.3455349206924438, 0.5861334800720215, 0.46530410647392273, 1.04451584815979, 0.22194263339042664, -0.31580275297164917, 0.46805593371391296, -0.5465328097343445, 0.39188364148139954, 0.8565486073493958, 0.30944693088531494, -0.4910377860069275, 0.2986285388469696, -0.32757341861724854, 0.14312322437763214, -0.33145833015441895, -0.06614527851343155, -0.06567386537790298, 0.16298545897006989, -0.43474966287612915, 0.3268139362335205, -0.3898431062698364, 0.4709383547306061, -0.1705082356929779, -0.5208208560943604, 0.16955558955669403, 0.35813161730766296, -0.09322778880596161, 0.10822141915559769, 0.35201361775398254, 0.0024041226133704185, 0.09063957631587982, 0.12510421872138977, -0.7246365547180176, 0.18120869994163513, 0.37147262692451477, 0.1406182050704956, -0.2527126967906952, -0.3376935124397278, -0.12393689900636673, 0.4142906963825226, 0.5002255439758301, 0.6880055665969849, 1.0698901414871216, -0.45994648337364197, 0.4485189914703369, 0.6210474967956543, -0.13975831866264343, -0.08547170460224152, 0.2517338991165161, -0.12808629870414734, -0.047730762511491776, 0.45096027851104736, -0.31301483511924744, -0.41887402534484863, -0.21006640791893005, -0.28262099623680115, 0.07776417583227158, 0.3513431251049042, 0.37648138403892517, -0.12989318370819092, 0.46475425362586975, 0.5742669105529785, 0.2478516548871994, -0.16346187889575958, -0.023433871567249298, 0.24317240715026855, 0.37690824270248413, -0.5699068307876587, 0.2935047149658203, 0.1051025316119194, -0.10220753401517868, 0.10567327588796616, -0.3420602083206177, 0.3096441626548767, 0.09670372307300568, -0.2510262429714203, -0.20901066064834595, -0.242583230137825, -0.3374854326248169, 0.22255827486515045, 0.12138509750366211, 0.4365786015987396, 0.4697538912296295, -0.48481130599975586, 0.07334458827972412, 1.5215790271759033, -0.11465544253587723, -0.20338009297847748, -0.10255009680986404, -0.4847816228866577, -0.1242661327123642, 0.09685508906841278, 0.05856955051422119, 0.10350179672241211, 0.10066869109869003, 0.39702221751213074, -0.1324508935213089, -0.10831844061613083, 0.42741620540618896, 0.014579950831830502, 0.3260367214679718, 0.14894363284111023, -0.43069684505462646, -0.531133770942688, -0.13066309690475464, 0.5282207131385803, -0.6692616939544678, 0.587738037109375, -0.28285887837409973, 0.20710033178329468, 0.03224613144993782, -0.6376116871833801, 1.8100907802581787, 1.923498511314392, 0.7600821256637573, 0.019999999552965164], "sample_rate": 48000}